Language model created by QuickLM on Wed Jan 20 18:46:41 EST 2016
Copyright (c) 1996-2010 Carnegie Mellon University and Alexander I. Rudnicky

The model is in standard ARPA format, designed by Doug Paul while he was at MITRE.

The code that was used to produce this language model is available in Open Source.
Please visit http://www.speech.cs.cmu.edu/tools/ for more information

The (fixed) discount mass is 0.5. The backoffs are computed using the ratio method.
This model based on a corpus of 5 sentences and 7 words

\data\
ngram 1=7
ngram 2=10
ngram 3=5

\1-grams:
-0.7782 </s> -0.3010
-0.7782 <s> -0.2218
-1.4771 BLAGUE -0.2218
-1.4771 GRANDE -0.2218
-1.4771 GROSSE -0.2218
-1.4771 HISTOIRE -0.2218
-1.4771 éNORME -0.2218

\2-grams:
-1.0000 <s> BLAGUE 0.0000
-1.0000 <s> GRANDE 0.0000
-1.0000 <s> GROSSE 0.0000
-1.0000 <s> HISTOIRE 0.0000
-1.0000 <s> éNORME 0.0000
-0.3010 BLAGUE </s> -0.3010
-0.3010 GRANDE </s> -0.3010
-0.3010 GROSSE </s> -0.3010
-0.3010 HISTOIRE </s> -0.3010
-0.3010 éNORME </s> -0.3010

\3-grams:
-0.3010 <s> BLAGUE </s>
-0.3010 <s> GRANDE </s>
-0.3010 <s> GROSSE </s>
-0.3010 <s> HISTOIRE </s>
-0.3010 <s> éNORME </s>

\end\